digraph Tree {
node [shape=box] ;
0 [label="X[0] <= 17.5\ngini = 0.5\nsamples = 201\nvalue = [100.5, 100.5]"] ;
1 [label="X[3] <= 23.25\ngini = 0.106\nsamples = 106\nvalue = [5.97, 100.5]"] ;
0 -> 1 [labeldistance=2.5, labelangle=45, headlabel="True"] ;
2 [label="gini = 0.28\nsamples = 6\nvalue = [4.975, 1.005]"] ;
1 -> 2 ;
3 [label="X[1] <= 2.408\ngini = 0.02\nsamples = 100\nvalue = [0.995, 99.495]"] ;
1 -> 3 ;
4 [label="gini = 0.0\nsamples = 95\nvalue = [0.0, 95.475]"] ;
3 -> 4 ;
5 [label="gini = 0.318\nsamples = 5\nvalue = [0.995, 4.02]"] ;
3 -> 5 ;
6 [label="gini = -0.0\nsamples = 95\nvalue = [94.53, 0.0]"] ;
0 -> 6 [labeldistance=2.5, labelangle=-45, headlabel="False"] ;
}