digraph Tree {
node [shape=box] ;
0 [label="X[0] <= 18.5\ngini = 0.5\nsamples = 133\nvalue = [66.5, 66.5]"] ;
1 [label="X[3] <= 22.25\ngini = 0.149\nsamples = 58\nvalue = [5.747, 65.221]"] ;
0 -> 1 [labeldistance=2.5, labelangle=45, headlabel="True"] ;
2 [label="X[3] <= 19.167\ngini = 0.327\nsamples = 7\nvalue = [4.926, 1.279]"] ;
1 -> 2 ;
3 [label="gini = 0.476\nsamples = 2\nvalue = [0.821, 1.279]"] ;
2 -> 3 ;
4 [label="gini = -0.0\nsamples = 5\nvalue = [4.105, 0.0]"] ;
2 -> 4 ;
5 [label="X[0] <= 17.5\ngini = 0.025\nsamples = 51\nvalue = [0.821, 63.942]"] ;
1 -> 5 ;
6 [label="gini = 0.0\nsamples = 48\nvalue = [0.0, 61.385]"] ;
5 -> 6 ;
7 [label="gini = 0.368\nsamples = 3\nvalue = [0.821, 2.558]"] ;
5 -> 7 ;
8 [label="X[0] <= 19.5\ngini = 0.04\nsamples = 75\nvalue = [60.753, 1.279]"] ;
0 -> 8 [labeldistance=2.5, labelangle=-45, headlabel="False"] ;
9 [label="X[3] <= 23.667\ngini = 0.273\nsamples = 9\nvalue = [6.568, 1.279]"] ;
8 -> 9 ;
10 [label="gini = 0.0\nsamples = 8\nvalue = [6.568, 0.0]"] ;
9 -> 10 ;
11 [label="gini = -0.0\nsamples = 1\nvalue = [0.0, 1.279]"] ;
9 -> 11 ;
12 [label="gini = 0.0\nsamples = 66\nvalue = [54.185, 0.0]"] ;
8 -> 12 ;
}